{"levels":[{"inputs":[0.509214153528347,0.0931460031972261,0,0,0],"outputs":[1,1,0,1,0,0],"biases":[0.11433223090213007,-0.15251178573281535,-0.034204693424046854,-0.1586899067080178,0.05563626234104424,0.06512822407959665],"weights":[[0.3840603565357062,-0.251417853425213,-0.3534303045035,-0.06803299458892241,-0.033097868902221744,-0.27467953645856374],[-0.05207829679017321,-0.14102139226394184,-0.02093115560728117,0.43680147950328163,-0.29112134003492174,-0.21848730442687225],[0.09311145424531223,-0.1364618224766658,-0.1523819007628212,-0.0552521936816453,0.35717012305582874,-0.008816333461892664],[-0.11868060583853547,0.2990018593769891,-0.0655917855036841,-0.0340476313215544,0.13600727047642763,-0.33990190654616237],[0.020525135996150197,0.26877042359823017,0.04724614036001694,-0.09441812059192572,0.11305413581652862,-0.052236638427729645]]},{"inputs":[1,1,0,1,0,0],"outputs":[1,1,1,0],"biases":[-0.038671749418199404,-0.26023567700954925,-0.2728907466419196,0.0046164724953875955],"weights":[[0.1981218312292656,-0.19300604792923498,-0.00037138042372201335,-0.43843909444704093],[0.45384152696340707,0.20224062967979017,0.00959964078907854,-0.3516605188940167],[-0.14247079575487775,0.019683041773599034,-0.2761381431591983,0.33066699418851603],[0.0009873201972836962,-0.22615927305669992,-0.06265383062784248,-0.25900784769975055],[-0.16535848841395248,0.30454891693021674,-0.5202580231870136,-0.1950747526571925],[-0.12400636859754506,-0.4555431903423619,-0.17010745156502888,-0.3186335668331343]]}]}