{"levels":[{"inputs":[0.6740723457104925,0.37035612243989924,0,0,0.36592765428950735],"outputs":[0,0,1,0,0,1],"biases":[0.396782064877615,0.328505065648774,-0.508402980705362,0.1503038609629275,0.44108669227230085,0.22835704930585876],"weights":[[-0.12495701167453724,-0.2268455740475245,-0.47403014477786787,-0.3858833055333165,-0.2675973985888637,-0.008246768990481724],[-0.5175195637881846,-0.1047788867129122,0.19675424195665317,-0.35739919360984773,-0.41288101100840846,0.40017615181988553],[-0.9280276363814346,-0.4319752180294642,0.4086323643241422,0.5591108950284566,-0.21850740614975722,-0.5451938948670856],[0.5652933708086095,0.1315462651136977,0.6016894794658646,-0.3165720095205237,0.5251105572851573,0.495338862268622],[-0.4014993425982426,0.77968241826666,0.29895710123796104,0.628100375666331,-0.035513746581776695,0.3110685766156044]]},{"inputs":[0,0,1,0,0,1],"outputs":[1,1,1,0],"biases":[0.48986142639651736,-0.31240365774517737,0.43024798175655987,0.1975903629473721],"weights":[[-0.1609888494798373,-0.6004666313517477,0.5051146982526429,0.2525803198397155],[0.4742133746804822,-0.22036865864656757,-0.6174167166246651,-0.5843256464929623],[0.7304996538018618,-0.38151065045743565,0.5972903529284617,0.10156583147569713],[0.4070477970024828,0.2857756764932328,-0.7432760183927455,0.5563754997029348],[0.5269062916894899,-0.4234668593533476,-0.5713150963743837,0.3175584452064334],[0.2220928202678192,0.07475052072193582,-0.07980763788832902,-0.2127260862779981]]}]}