{"levels":[{"inputs":[0.04109572016831786,0,0,0.06138536660196392,0],"outputs":[0,1,1,0,0,1],"biases":[0.15896050809149617,-0.23285101437494038,-0.04434838659533001,0.01775457401978639,0.1904130283182591,-0.17631768891165278],"weights":[[0.1345791450280765,-0.3211956329717004,0.30362925941834307,-0.0423419062357826,0.21246618243939136,-0.24123500972806178],[0.024786077196400393,-0.2059016447600268,0.32017154254620334,0.06610856226821606,0.35574530360507695,0.024551472401479896],[0.04349395598897196,-0.2736702629000076,-0.06350747676492385,-0.02362708541951445,-0.32179050287032274,0.08862012840937059],[-0.13100252497052456,-0.14072738678600288,0.058583908965646136,0.20130651324818838,0.16177217012354955,-0.12695372529151305],[-0.06878770249999047,0.34165211765021963,0.1504671547292225,0.09994871311853779,-0.29714473130357477,0.06133443612230001]]},{"inputs":[0,1,1,0,0,1],"outputs":[1,0,0,0],"biases":[-0.11844990250789098,0.1582889725985943,-0.08693736093737907,-0.1213284238995247],"weights":[[0.06332157866784846,0.22814669174337754,-0.014683669231233383,0.18822238868829572],[-0.04044977056974592,0.28301293217188067,-0.3915950706297831,-0.3857699203375204],[0.11353940148599342,-0.41867779299933766,0.12345081579536045,-0.23191754735141654],[0.1933529592421459,0.290948540724382,-0.028535541691451942,0.1017893095514709],[-0.07150980658699252,-0.07650467823306367,0.18478705991580596,0.1289960270009508],[0.0989663472235948,0.23255118837404926,0.04388112759712064,0.02995834103965043]]}]}