{"levels":[{"inputs":[0.4257214893434772,0.15180838581144795,0,0,0,0],"outputs":[1,0,0,0,1,0],"biases":[-0.47797480886421395,0.2847656312105,-0.0737657200353849,0.5377790229011598,-0.26598242229090086,-0.07502407735232161],"weights":[[-0.4273321366652069,-0.16576310093669527,-0.07925483210761253,0.30874377839952877,0.13534008231428307,-0.40355861695056583],[-0.28414851320454504,0.35527238257775984,-0.34340817546948543,-0.41907555302291716,-0.18732472760702698,-0.11426403424120582],[-0.3763595613927404,-0.5999134640583829,-0.26356395710716024,0.059451699686276185,0.21750270406366506,-0.41597876963731945],[-0.16299430571845977,-0.30935004833587576,-0.12960056454636687,-0.11727831072556136,-0.0447881433132894,0.8091130155829638],[-0.11215600576946883,0.06430975823166715,-0.038421086512894,-0.3388631203506056,-0.07524544955015401,0.29513173558520256],[-0.8010712524242698,0.18655310253274615,-0.2816902697392828,-0.06653931752303288,0.09006531932317093,0.12458570761025711]]},{"inputs":[1,0,0,0,1,0],"outputs":[1,0,1,0],"biases":[0.1348337747368062,0.05892610487106187,0.1051181118986596,0.32014733647151306],"weights":[[0.5323488664656012,0.21535014371764682,-0.20296931161658782,-0.13222212271373676],[0.18595064671416053,0.2614317059291948,0.08499913921478758,-0.16574173768692713],[-0.4990895559148933,0.42040183244907503,-0.09412390747972646,0.2414397254235337],[0.2897051333246191,-0.18439055728273476,-0.40903502294835486,0.33639478157162206],[0.3109506927557935,-0.532987983466429,0.3202734107646783,-0.37128001566016156],[-0.051959539682156775,0.42272098027749594,-0.31918530177992777,-0.06527449918562461]]}]}