{"levels":[{"inputs":[0.5169334550099947,0.10740941248558267,0,0,0],"outputs":[1,1,1,1,0,0],"biases":[0.17584698408005706,-0.163113048038218,-0.17111931118999574,-0.02160657012842948,-0.011302810229578998,0.2240882445538262],"weights":[[0.37758519686062253,-0.2808776334159325,-0.32519442067724474,0.11141160553975447,-0.06016175733965057,-0.06435572442369517],[0.02718274482142321,-0.08413028500498336,0.17080479944104182,0.3769871426327193,-0.2724598691849439,-0.028270636141372457],[0.05761111923759059,-0.28689747705506985,-0.09369039829800438,-0.08658194351487411,0.18046835516840315,0.07348153153554994],[0.11726095706913692,0.07929464352557673,-0.028615000119164895,0.10594750099582174,0.10716496001309281,-0.32374851682296485],[-0.052155333640138316,0.29583048865893086,0.10427885426628015,-0.11228705248132625,0.11434583811079488,0.026734703086269275]]},{"inputs":[1,1,1,1,0,0],"outputs":[1,1,1,0],"biases":[-0.010818175868210586,-0.13803036218110928,-0.10902515344773434,-0.03339284207397651],"weights":[[0.1267942058821756,-0.21756509799008217,0.021676083354272402,-0.5444296005739374],[0.4096386394345187,0.1799253278422685,-0.018403069556127118,-0.31140682771062267],[-0.23414988448612678,0.0594805445162083,-0.1063084022861151,0.22446958206657916],[0.1480183651514806,-0.15385703680691498,0.08045133357915372,-0.14311921603394273],[0.013805405489845518,0.10304038314070298,-0.3863615019021612,-0.22160382768095974],[-0.2660049745403257,-0.47714612319308003,-0.2380702589111729,-0.1716462730938102]]}]}